{"W1": [[-1.3037837925537878, -0.4707606083487419, 1.912098942968262, 2.158504487497814, -0.5546057642126133, 0.8466377963264905, 1.4822555555560744, 2.688340037753053, 0.6631088522308273, -0.0495790170449365], [1.967191374190502, -1.4444094970960042, 0.6243544345430813, -0.40764508925917187, -0.3392506112157253, -0.8179777203475359, 0.2837772956428143, -0.19339193725892054, -0.4912129790278442, -1.1603120969336413], [-1.0684600974381868, 0.28707114282152324, 0.2173175394786243, -1.9880165987110199, 0.6387650943100168, -0.972660420389966, 0.04150511343240382, 0.7158757445221986, -1.7043601335643654, 1.4201272934485933], [-0.573266831311798, -0.17756962070978793, 1.5156910273387116, 0.15939663463112874, -1.4380449974009735, 3.18607761492109, -0.6987591098107634, 0.2900738958632354, -1.0386425275778954, 1.6962796476797954], [-0.9017190433023814, -1.3186628587107394, 1.950353954211892, 0.35863276332043564, -1.0991522820225632, 1.8355754427916846, 2.3917369725251465, -0.16745833481603858, 0.1682283943602651, -0.7089730708092044], [-0.4702274423767956, -2.980928681620674, 0.9871301961823511, 2.471579184889976, 0.402866890610998, -1.7645056638159446, 0.5255373695404383, 1.188083524317837, -1.1511792757897896, -1.4737822816835955], [0.5459018446968122, -3.0384547265999826, 2.976452668365754, 0.6576658834127408, -1.7094243764386445, -1.76896009646341, -0.9319492737516839, -1.0936344820335901, -0.2309883465137095, 2.8279975583913535], [-1.3076474586144364, -0.6906454257880783, 0.29423196654540107, -2.7589807865518337, -1.933639809283149, 1.0979726354880577, 0.9264059350488028, -1.5599376710700747, -0.5749675308456654, 0.585300392113123], [-1.4680505324790736, -0.5625659177002038, -1.2157483566215022, 1.710867318798617, -3.02118518142726, -2.3635693984271375, -0.5657664264021564, 0.9357869019337024, -2.2688769026234197, -2.2012567743759917], [0.40523821811465477, 0.4895120001775797, 1.0742863667869649, -0.03224787206171816, 1.2117853937940548, 1.342994456824441, 0.3822964052789623, 0.944764863592421, -0.532558456501738, -0.7683936786733654], [-0.6246835002493905, 0.23211642748784045, 1.0047723237934267, -0.12279383980857957, -0.3740107243321678, -2.421381874934574, 0.04266249756948978, 0.7775123835094994, 0.3535031488556352, -0.3140430438879205], [-0.1749405347393789, -0.23988313286438134, 0.3025888353676926, 1.3905185785164564, 0.2792598521886363, -1.1032364371137309, -0.005469544296059596, 0.4896055804408247, -0.8803931858028045, -1.2868854812593211], [-1.2909359989062064, -0.05837912270451864, 1.0106003629640692, -1.0021512509227581, 0.6115369703943306, -0.4232593722838195, 1.4229635238639613, 1.131433744051022, -0.8981742054419042, -0.5938040092250679], [-2.157945125823017, 0.016441638215729543, 0.7918093341693481, 1.1486920115260726, -0.8820155240473774, 1.938002916308674, 1.1511326407326852, 1.9304268729218597, -0.6396418082965881, -1.7183642601514644], [0.8440219550302651, -0.8925769322047357, 0.28800619692283164, -1.407529243107781, -1.11002180373735, 0.47419065650391795, 0.8061714237079963, 0.047455746954797685, -1.5324998371730691, 0.6829939800908444], [-0.7011430197037855, -2.281210850692973, 1.199333395114674, -0.7431579068844508, 0.6792694031829203, -0.5496964796701418, -0.9176737415781993, -0.25261275306644043, -0.7816927735343846, -1.5522922260858043]], "b1": [-2.438336829096177, -1.1783238088269434, -6.625710969951179, 0.5533249996615741, 1.9801186576518357, 0.9032046349581923, 0.9229109426781574, -0.029269162505209945, 4.964796518662168, 2.8930140571541285], "W2": [[0.5953465811640197], [2.4489120202930086], [-2.843972340820216], [0.8699939311654545], [0.8967278526879561], [0.2089705270235575], [-0.6092707945781703], [-1.6506671858750837], [2.1566152528120566], [0.9154811193341903]], "b2": [1.2289792342187429]}