{"W1": [[0.24669060502716972, -0.4563076415214417, -1.3164098647419349, 0.9267491423239189, -0.6209410645946216, 0.4057360503048576, 0.3201159832233717, -0.7920784961900924, 1.0498319938534548, -1.2701610673736206], [-0.6394730638431272, 1.6647479311213618, -0.4123583862293699, -1.4232475753195317, 1.4028935517626446, -1.4023707861020225, -0.31818144980802954, -1.049016204871712, -1.0481539999983325, 0.8707857965625053], [0.46337539793865695, 1.3411149229181132, 0.49042762724538225, 0.6710745611569473, -0.3958687593704423, -0.854579937252909, -1.1248692466628385, 1.0808072963002522, 1.5543757481361582, -1.104866012219154], [-0.4701142334780479, -0.5895158074688502, -0.5868916901492535, 0.7505666502629096, -1.0407060120881237, -1.0118836132808327, -1.4317684693579429, 0.7345917419615597, -0.20958946408468465, -0.37272956248727207], [0.02704536890362547, 1.5691937238421887, -0.3664786317741329, -1.1683025878120246, -0.505371597025265, 0.3698866584447951, -0.6743517846505737, 0.3023005403377371, -0.030029308986421113, -2.1038663325710867], [-0.4508639939565863, -1.3735453182369108, -1.4938935195480672, 0.4262994459493776, -0.22393236322700366, -1.2344632750242486, -1.338388372364233, -1.1908023249988895, -0.7675880700369838, -0.29857807831974764], [0.26166105614059076, 0.16991487631303015, -1.2736545733626596, -1.1568345639384772, 1.3221143875608652, 0.18914845260272223, -1.336089815803194, 0.0016417755386775245, 0.9163672410124761, -0.44213095419234977], [0.9224644552766276, -0.013332593766160233, -0.7055335361346976, -0.10782952695712798, 0.11207225772213245, -0.6259640914014212, -0.5942246077312279, -0.7395445717254236, 1.8257010851134547, -0.29381181083530267], [-0.5480349732503736, 0.5050965983997425, -1.0553649311220554, 0.5462242546757546, -0.8735398182662253, -0.5211590128377197, -1.4268363374558646, 0.25829295186729445, -0.7525900126225541, 0.082882345965879], [0.8318131470792172, 0.10090245493489665, -0.5627616976103058, -0.07381985326962366, 0.07740803482894304, -1.3441657765958017, 0.14276558809152395, 0.858004510957796, 0.5279296945651807, 0.2560780688821063], [-0.6353419338452614, 0.9770765255230628, -0.41396358993839977, 0.2931749047177843, 1.4109566013159291, -1.2362401493991406, 0.07322510895517387, 0.2661341636531648, 1.0427101903025546, -0.6581823913348321], [0.07859071261961648, 2.1984038578207357, -0.5803729599653198, -0.9618306160638207, 0.9496891249252781, -0.8861284341284734, -0.6692397542509841, 0.3250524776021919, 4.066423024345721, 1.393821412371948], [-0.6171798177954344, -0.3052441669573968, -0.9814452677348341, 1.4880435788225554, 1.0584341081798525, -0.7591820566818401, 0.8146561967018096, 0.07739151747944673, 1.5641566630087076, -0.8045272874962563], [-0.956563962261304, 0.4246975909118204, 1.0467265698536383, -1.3769309438266881, -0.11935803119761329, -1.7418901494682277, -0.20588903334966882, 0.9298507796659816, -0.31934317749107755, -2.301193024556674], [-0.5544943896696821, -1.6363146725015527, -1.0480621201904152, 3.214582267596379, -1.724517149154317, 0.516129148756011, -0.6180424251711698, 1.0861024489634503, -0.9588317359474328, -0.42128099104965344], [-0.3033842901960965, -0.5816967334490488, -1.0492856473812566, 1.0526248639300633, -3.0952662027545133, -0.8427806072367575, 0.22676813086833209, -1.0559450918848745, 0.9838419376513948, -1.96470395507309]], "b1": [1.8291567453758093, -3.060412198691572, 3.882102790495251, -0.8862631715440588, 2.53965509025637, 4.4456637258887115, 1.2058759284789864, 0.32614871113235555, 2.3132254119454703, 2.881781024946108], "W2": [[0.15718687890931549], [1.4289633691815466], [-2.1249603278642493], [0.9714056577350312], [0.15484036380609822], [-2.0064428107667602], [-1.6981916233191683], [0.030096154163792743], [0.1498271918570819], [-1.365673445092451]], "b2": [0.6987314129565781]}